<Nnet> 
<Splice> 440 40 
[ -5 -4 -3 -2 -1 0 1 2 3 4 5 ]
<!EndOfComponent> 
<AddShift> 440 440 
<LearnRateCoef> 0  [ -0.001320623 -0.0004130955 -0.0003902324 -6.479926e-05 -0.0002393937 -0.00111292 -0.001147853 -0.001101132 -0.001067297 -0.001214483 -0.001286797 -0.001472561 -0.001488691 -0.001436035 -0.001387649 -0.001533402 -0.001984508 -0.00273986 -0.003352356 -0.003190801 -0.002768001 -0.002656028 -0.002115173 -0.001566791 -0.001284545 -0.001328049 -0.00134011 -0.001671334 -0.001866565 -0.001313218 -0.0007911121 -0.0003697603 -0.000122394 -0.0005103818 -0.0007053757 -0.0006747512 -0.0003025565 2.101643e-05 0.0002676341 0.000561307 -0.001070671 -0.0003464021 -0.0003336078 -7.685078e-05 -0.0002223009 -0.0009152074 -0.0009433037 -0.0009079301 -0.0008693471 -0.0009799378 -0.001014074 -0.00114371 -0.001172755 -0.001147054 -0.001115313 -0.001222634 -0.001577343 -0.002179651 -0.002685488 -0.002537512 -0.002200683 -0.002099284 -0.001593997 -0.001141747 -0.0009033293 -0.0008609863 -0.0008889209 -0.001172541 -0.001402733 -0.0008808943 -0.0003668276 7.82433e-06 0.0001981245 -0.0002106865 -0.0004152507 -0.0003931731 -2.747222e-05 0.0003290083 0.000596765 0.0008147864 -0.0008305541 -0.0002707815 -0.000254079 -7.195765e-05 -0.0001828435 -0.0006995942 -0.0007184914 -0.0006925029 -0.0006600338 -0.0007337629 -0.0007379292 -0.000806244 -0.0008406373 -0.0008274585 -0.0008093771 -0.000892696 -0.001148882 -0.001606809 -0.001993747 -0.001848861 -0.001600002 -0.001520648 -0.0010542 -0.000698807 -0.0004954261 -0.0003734334 -0.0004262722 -0.0006529189 -0.0009173676 -0.0004254474 8.519641e-05 0.0004147073 0.0005444212 0.000107139 -0.0001054418 -9.580646e-05 0.0002577598 0.0006394102 0.0009307214 0.001075036 -0.0005655634 -0.000183072 -0.0001760754 -5.250871e-05 -0.0001291265 -0.0004584527 -0.0004773287 -0.0004692229 -0.0004349681 -0.000475146 -0.0004505778 -0.0004725748 -0.0004952064 -0.00050445 -0.0004901595 -0.0005541444 -0.0007210606 -0.001018778 -0.001281369 -0.00115953 -0.0009929008 -0.0009334433 -0.0005574245 -0.000311628 -0.0001463339 9.610178e-06 -4.869683e-05 -0.000188308 -0.0004565241 -4.089699e-05 0.0004184152 0.0006610737 0.0007434736 0.0003342593 0.0001431755 0.0001434085 0.0004558183 0.0007872583 0.001049125 0.001138463 -0.0002803325 -8.611777e-05 -0.0001009015 -3.935553e-05 -6.788767e-05 -0.0002240966 -0.0002292077 -0.0002269926 -0.0002065819 -0.0002205741 -0.0001879909 -0.0001890866 -0.0002037462 -0.0002177063 -0.00020112 -0.0002379242 -0.0003270138 -0.0004761057 -0.0005974963 -0.0005317756 -0.0004462821 -0.0004096563 -0.0002302455 -0.000109451 -1.009887e-05 7.629672e-05 5.942e-05 1.877104e-05 -0.000165229 6.769238e-05 0.0003474586 0.0004850171 0.0005202084 0.0002597916 0.0001494379 0.0001503341 0.000342107 0.0005208749 0.0006879189 0.0007291397 2.024866e-09 -1.034009e-10 2.817e-09 2.929156e-09 1.707414e-10 2.149284e-09 -1.483673e-09 6.447749e-10 1.131071e-09 2.338316e-09 -3.072826e-09 5.321458e-09 5.672294e-09 -4.034662e-09 1.710116e-09 -9.967018e-10 -3.90762e-09 1.423711e-11 -4.549121e-10 -1.080773e-10 -1.13342e-08 -2.599156e-09 7.770138e-10 1.371902e-08 -1.878727e-09 -8.910146e-10 -4.446604e-09 -3.187606e-09 -8.351573e-10 5.467259e-10 -3.949967e-09 8.578535e-09 1.501652e-11 -6.707031e-10 -1.155181e-09 -4.225668e-09 3.88933e-09 -1.162871e-09 -4.719759e-09 1.236654e-10 0.0002803365 8.611756e-05 0.0001009072 3.936139e-05 6.788801e-05 0.0002241009 0.0002292047 0.000226994 0.0002065841 0.0002205787 0.0001879848 0.0001890972 0.0002037575 0.0002176982 0.0002011234 0.0002379222 0.000327006 0.0004761057 0.0005974954 0.0005317755 0.0004462595 0.0004096511 0.0002302471 0.0001094785 1.009511e-05 -7.629851e-05 -5.942889e-05 -1.877741e-05 0.0001652273 -6.769129e-05 -0.0003474665 -0.000485 -0.0005202083 -0.0002597929 -0.0001494402 -0.0001503426 -0.0003420992 -0.0005208772 -0.0006879283 -0.0007291394 0.0003337686 0.0001170027 0.0001505152 3.226412e-05 0.0001026138 0.0003755624 0.0004092014 0.0004023653 0.0003792786 0.0003767735 0.0002986126 0.0002646571 0.0003002402 0.0003648023 0.0003369296 0.0004009636 0.000594767 0.0008561707 0.00107587 0.0009600595 0.0008145687 0.0007426594 0.0003613151 0.0001339626 -7.291984e-05 -0.0002875156 -0.0002391667 -0.0001442777 0.0002334222 -0.0002336874 -0.0007893723 -0.001072148 -0.001132704 -0.0005947914 -0.0003761884 -0.0003820766 -0.0007548108 -0.001119419 -0.001482749 -0.001541125 0.0002693866 3.258239e-05 0.0001364615 -1.892864e-06 0.0001432439 0.0005275113 0.0005682566 0.0005668209 0.0005506517 0.0005279167 0.0004061273 0.0003000972 0.0003445013 0.0004852547 0.0004638729 0.0005592015 0.0008465099 0.001216635 0.001522044 0.001354373 0.001173831 0.001052825 0.0004668133 0.0001178287 -0.0002030761 -0.0005346175 -0.0004435445 -0.0002903497 0.000281175 -0.0004037304 -0.00124764 -0.001684273 -0.001768064 -0.0009378414 -0.0006180267 -0.000637464 -0.001187921 -0.001743549 -0.002307897 -0.002371032 0.0001836871 -5.703827e-05 0.0001206348 -3.096831e-05 0.0002043167 0.0006965955 0.0007345069 0.0007159916 0.0007286135 0.0006913682 0.0005119101 0.0003242588 0.0003929423 0.0006092501 0.0005977212 0.000708173 0.001107734 0.001590223 0.001972427 0.001763659 0.001539307 0.001360582 0.0005778154 0.0001074198 -0.0003268824 -0.0007925594 -0.0006403111 -0.0004162859 0.0003477303 -0.0005526071 -0.001699485 -0.002291932 -0.002403323 -0.001273382 -0.0008509668 -0.0008949311 -0.001614405 -0.002371091 -0.003140568 -0.003208567 0.0001048139 -0.0001367642 0.0001196407 -2.769303e-05 0.0002685151 0.0008541416 0.0008845796 0.0008710342 0.0009107478 0.0008794445 0.0006154845 0.0003627514 0.0004560394 0.0007589152 0.0007609127 0.0008928733 0.001403066 0.001992214 0.002448267 0.002182063 0.001926366 0.001692339 0.0007089329 0.0001031442 -0.000442887 -0.00105213 -0.0008244261 -0.0005255076 0.0004330498 -0.0006931952 -0.002145624 -0.002893147 -0.003035653 -0.001603555 -0.001073121 -0.001140088 -0.002034267 -0.002990089 -0.003971256 -0.004051354 ]
<!EndOfComponent> 
<Rescale> 440 440 
<LearnRateCoef> 0  [ 0.4027276 0.3378591 0.2746587 0.243067 0.240547 0.2453494 0.248526 0.2474567 0.2466579 0.2474191 0.2467275 0.2467075 0.2504714 0.2580802 0.265303 0.2713516 0.2804616 0.2882158 0.2875093 0.290123 0.2963329 0.300196 0.2976522 0.3031717 0.3021319 0.288092 0.2862029 0.2892222 0.2966119 0.2977246 0.297125 0.3000378 0.3100632 0.3292233 0.3451898 0.3553816 0.3632274 0.3649895 0.3563715 0.3558328 0.4026522 0.337823 0.2746361 0.2430584 0.2405411 0.2453305 0.2485051 0.2474364 0.2466366 0.2473952 0.2467042 0.2466809 0.2504453 0.2580537 0.2652771 0.2713227 0.2804278 0.2881704 0.2874545 0.2900693 0.2962828 0.3001467 0.2976077 0.303133 0.3020973 0.2880544 0.2861633 0.2891766 0.296567 0.2976817 0.2970816 0.2999997 0.3100301 0.3291877 0.3451543 0.3553515 0.3631986 0.3649566 0.3563342 0.3558004 0.402578 0.3377874 0.2746126 0.2430488 0.2405333 0.2453106 0.2484838 0.2474149 0.2466145 0.2473717 0.2466811 0.2466541 0.2504187 0.258025 0.2652486 0.2712927 0.2803922 0.2881243 0.2873982 0.2900124 0.2962305 0.3000965 0.2975617 0.3030926 0.3020602 0.2880157 0.2861234 0.2891292 0.2965203 0.2976365 0.2970351 0.2999581 0.3099937 0.3291504 0.3451174 0.3553198 0.3631687 0.3649226 0.3562956 0.3557666 0.4024981 0.3377513 0.2745898 0.2430385 0.2405247 0.2452889 0.2484612 0.247393 0.2465919 0.2473478 0.246657 0.2466273 0.250391 0.257996 0.2652193 0.2712614 0.2803564 0.2880763 0.2873397 0.2899555 0.2961774 0.3000452 0.2975193 0.3030559 0.3020265 0.2879821 0.2860892 0.2890861 0.2964756 0.2975974 0.2969968 0.2999273 0.3099665 0.329121 0.3450865 0.355294 0.3631448 0.3648973 0.3562706 0.3557464 0.4024149 0.3377141 0.2745678 0.2430288 0.2405151 0.2452674 0.2484382 0.2473698 0.2465693 0.2473243 0.2466342 0.2466044 0.2503667 0.2579693 0.2651922 0.271232 0.2803234 0.2880328 0.2872836 0.2899046 0.2961299 0.3 0.2974889 0.3030304 0.3020029 0.2879632 0.2860722 0.2890614 0.2964459 0.2975779 0.2969834 0.2999216 0.3099631 0.3291148 0.3450781 0.3552893 0.3631403 0.3648872 0.3562645 0.3557507 0.4023346 0.3376794 0.2745441 0.2430177 0.2405061 0.2452479 0.2484169 0.247348 0.2465487 0.247304 0.2466172 0.2465867 0.2503476 0.2579469 0.2651704 0.2712077 0.2802936 0.2879916 0.2872314 0.2898587 0.2960899 0.2999645 0.2974678 0.303016 0.3019954 0.2879611 0.2860713 0.2890593 0.2964287 0.2975776 0.2970006 0.2999494 0.3099921 0.3291318 0.3450873 0.3553011 0.3631632 0.3649133 0.3563014 0.3558009 0.4022544 0.3376446 0.2745204 0.2430065 0.240497 0.2452284 0.2483957 0.2473262 0.2465281 0.2472837 0.2466001 0.2465691 0.2503286 0.2579244 0.2651486 0.2711834 0.2802638 0.2879503 0.2871792 0.2898129 0.2960499 0.2999291 0.2974467 0.3030016 0.3019878 0.287959 0.2860704 0.2890572 0.2964114 0.2975772 0.2970178 0.2999772 0.3100211 0.3291489 0.3450966 0.355313 0.3631862 0.3649395 0.3563384 0.3558512 0.4022131 0.3376144 0.2745006 0.2429993 0.240491 0.2452138 0.2483773 0.2473076 0.2465095 0.2472674 0.246588 0.2465577 0.250315 0.2579061 0.2651303 0.271164 0.2802371 0.2879156 0.2871348 0.2897725 0.2960141 0.2998978 0.2974311 0.302992 0.3019856 0.2879642 0.2860777 0.2890638 0.2964036 0.2975868 0.2970451 0.3000159 0.31006 0.3291745 0.3451143 0.3553322 0.3632161 0.3649738 0.3563872 0.3559115 0.402184 0.3375945 0.274485 0.2429934 0.2404842 0.2451988 0.2483604 0.24729 0.2464912 0.2472511 0.2465761 0.2465495 0.2503051 0.2578903 0.2651133 0.2711455 0.2802115 0.2878823 0.287094 0.2897356 0.2959792 0.2998683 0.2974177 0.3029858 0.3019879 0.2879723 0.2860874 0.2890723 0.2963988 0.2975975 0.2970748 0.300058 0.3101017 0.329202 0.345134 0.3553538 0.3632484 0.3650115 0.3564404 0.3559754 0.4021581 0.3375729 0.2744675 0.2429869 0.2404751 0.2451821 0.248343 0.2472733 0.2464725 0.2472341 0.2465635 0.2465415 0.2502949 0.2578745 0.2650957 0.2711278 0.2801855 0.2878484 0.2870528 0.2896973 0.2959437 0.2998383 0.2974032 0.3029791 0.301989 0.2879808 0.2860961 0.2890792 0.2963928 0.2976067 0.297105 0.3001005 0.3101451 0.3292293 0.3451534 0.3553762 0.3632804 0.3650497 0.3564949 0.3560407 0.4021309 0.3375519 0.27445 0.2429777 0.2404662 0.2451666 0.2483269 0.2472555 0.2464531 0.247215 0.2465507 0.246532 0.2502832 0.2578562 0.2650755 0.2711066 0.2801566 0.2878117 0.2870091 0.289658 0.2959059 0.2998057 0.2973866 0.302971 0.3019888 0.2879886 0.2861032 0.2890842 0.2963841 0.2976152 0.2971343 0.3001426 0.3101871 0.3292557 0.3451716 0.3553971 0.363311 0.3650864 0.3565491 0.3561066 ]
<!EndOfComponent> 
</Nnet> 
